%YAML:1.0
---
hog: !!opencv-object-detector-hog
   winSize: [ 64, 128 ]
   blockSize: [ 16, 16 ]
   blockStride: [ 8, 8 ]
   cellSize: [ 8, 8 ]
   nbins: 9
   derivAperture: 1
   winSigma: 4.
   histogramNormType: 0
   L2HysThreshold: 2.0000000000000001e-01
   gammaCorrection: 0
   nlevels: 64
   signedGradient: 0
   SVMDetector: [ 8.67664255e-03, -3.44783370e-03, 1.45248749e-04,
       2.46811891e-03, 5.06967306e-03, -5.19353850e-03, -2.61074700e-03,
       -7.11643184e-03, 8.08864553e-03, 7.43951229e-03, 7.98926130e-03,
       -2.91287689e-03, -1.27898052e-03, -8.14592186e-03,
       -1.26493713e-02, 3.02233850e-03, -1.02221500e-02, 2.30608718e-03,
       2.26776265e-02, -1.36227887e-02, 1.02036642e-02, 9.53222997e-03,
       5.96134365e-03, -1.00000703e-03, -5.04784938e-03, -1.57433318e-03,
       7.12711038e-03, 1.63657051e-02, -1.32990337e-03, -1.19218719e-03,
       8.04547593e-03, 1.10372761e-03, 6.90422836e-04, -4.07923851e-03,
       -5.80721069e-03, 4.93505411e-03, -9.70509544e-04, -4.63759119e-04,
       -1.55876745e-02, 1.95103686e-03, 1.10805628e-03, -8.61086138e-03,
       -5.94206760e-03, -1.06037380e-02, -3.72741418e-03,
       -1.71348674e-03, -2.00553308e-03, -1.37988664e-03, 1.97902359e-02,
       1.29023343e-02, -2.19552909e-04, 4.64260532e-03, -7.44352641e-04,
       6.80278847e-03, -2.74590775e-03, -7.07832165e-04, -4.82663652e-03,
       7.88939744e-03, 8.66723014e-04, -5.33527648e-03, -3.10404040e-03,
       -1.67067125e-02, -1.09619619e-02, 1.40619306e-02, 1.14325499e-02,
       3.36863654e-04, 2.18200274e-02, 4.89701889e-03, -2.04380369e-04,
       -5.17103868e-03, 3.06992349e-03, 1.35724887e-03, 1.04100816e-02,
       6.71523344e-03, 8.99928808e-03, -2.43483274e-03, -1.33844223e-02,
       -1.11464150e-02, -4.49614786e-03, 3.75017058e-03, 9.88902291e-04,
       4.81936242e-03, 4.52351850e-03, 3.56851704e-03, 7.05367606e-03,
       3.79077438e-03, 1.59832817e-02, 7.72161642e-03, 5.76317636e-03,
       -1.08231837e-02, 1.19658494e-02, 1.86136439e-02, -2.75931321e-03,
       -4.24223079e-04, -1.35406479e-02, -1.43273743e-02,
       -1.21450890e-02, 2.39440501e-02, 2.81253783e-03, -2.72715837e-03,
       8.01244844e-03, -8.77471361e-03, 1.08427294e-02, -2.11047661e-02,
       1.96649227e-03, -1.40830232e-02, 1.56602485e-03, -1.63894277e-02,
       2.24145362e-03, 4.18523932e-03, 1.15118595e-02, 1.12031056e-02,
       2.43466180e-02, 1.76289082e-02, 4.78525972e-03, -5.43208327e-04,
       -5.44642797e-03, -4.45645349e-03, -6.49551116e-03,
       -1.28118484e-03, -7.59148598e-03, 1.39924372e-02, -1.03677483e-03,
       4.50070621e-03, 1.47676596e-03, -4.97506745e-03, 1.12341135e-03,
       -2.09468254e-03, 2.30578647e-04, 9.52968374e-03, 4.78399452e-03,
       3.41173843e-03, -5.68524282e-03, 9.63203423e-03, -1.37318261e-02,
       -9.58961528e-03, -1.05430698e-02, -5.73802227e-03,
       -1.87164880e-02, -7.33750779e-03, -1.64987985e-02,
       -1.06858462e-02, 1.51574919e-02, -9.02695023e-03, -2.08376907e-03,
       -1.02784988e-02, -8.45417473e-03, 7.53989094e-04, 1.92106329e-02,
       9.21100192e-03, 3.62189785e-02, 1.10526271e-02, 9.57971322e-04,
       -6.41972510e-05, -1.64285824e-02, -2.76506171e-02,
       -2.26814169e-02, 1.34791108e-02, -3.06891464e-03, 6.86116703e-03,
       9.65253729e-03, -1.51985232e-03, -1.77198881e-03, -4.24235454e-03,
       7.69470353e-03, -2.65870942e-03, 6.55760383e-03, -1.00711649e-02,
       6.72942307e-03, 1.29038095e-02, -4.80947550e-03, -9.35337879e-03,
       3.13832797e-03, -6.80882344e-03, 1.56487280e-03, 1.82365198e-02,
       -1.09970279e-03, 1.33929783e-02, 8.58712534e-04, -6.38326723e-03,
       -4.25226567e-03, -1.06048137e-02, -1.43041750e-02,
       -1.41294813e-03, 1.52849341e-02, 9.09229275e-03, 1.87796226e-03,
       -1.89744181e-03, 3.18928249e-03, -1.09746866e-03, -1.25827277e-02,
       1.72482381e-04, 1.61185383e-03, 9.18393023e-03, 1.65047515e-02,
       3.97426356e-03, -1.58071667e-02, -1.40784925e-03, -9.16252472e-03,
       1.86336059e-02, -6.57147216e-03, 3.72703094e-03, 9.84915998e-03,
       1.51477791e-02, 5.89003600e-03, -1.75383539e-04, -3.52293695e-03,
       -4.13675467e-03, -6.77898340e-03, 2.10424373e-03, -7.99822062e-03,
       -1.38672162e-02, 4.19533066e-03, -2.99477414e-03, -6.52204454e-03,
       -9.58036259e-03, 1.31087108e-02, 5.64340386e-04, 1.60696695e-03,
       -2.18174406e-04, 2.91072149e-02, 1.81437731e-02, 5.91719896e-03,
       -6.57533668e-03, 4.21982817e-03, -1.76456364e-04, -4.73495951e-04,
       -1.92533189e-03, -8.31919257e-03, 9.78305005e-03, -6.02383539e-03,
       -4.75813728e-03, -1.65575501e-02, -8.61334521e-03, 6.00120565e-03,
       -8.44552089e-03, 1.04981801e-02, 8.71987175e-03, 6.75511546e-03,
       1.30430646e-02, -9.54454113e-03, -5.47249848e-03, -1.36213773e-03,
       -2.21550203e-04, 2.09499430e-03, -8.33566859e-03, -1.57755055e-02,
       3.56072164e-03, -2.93669617e-03, -2.93047652e-02, -5.69966249e-03,
       -1.88842285e-02, 5.81744185e-04, -5.40915597e-03, -2.60361913e-03,
       -7.86048826e-03, 3.23734991e-02, 6.78346725e-03, -2.79957382e-03,
       -5.57050575e-03, 4.21629194e-03, -8.70855246e-03, -1.48681784e-02,
       -7.21935323e-03, -1.34541383e-02, 1.21009871e-02, -6.30318373e-03,
       -7.37017067e-03, 4.40475182e-04, -5.65321092e-03, 6.19909633e-03,
       2.11963970e-02, 3.61220003e-03, -7.24476669e-03, 1.62425674e-02,
       1.63326021e-02, 1.69187994e-03, 1.92075502e-02, -3.40037490e-03,
       7.82852806e-03, -6.45772927e-03, 1.52028305e-02, -8.51609744e-03,
       -5.66005067e-04, 3.34876007e-03, 1.54043101e-02, 9.36812349e-03,
       9.91272274e-04, -8.02983472e-04, -4.29785298e-03, -8.67719948e-03,
       -2.23274482e-03, 1.32672945e-02, 3.40908882e-03, -4.34868922e-03,
       -1.72739453e-03, 2.31470191e-03, -3.54430941e-03, -2.33483315e-02,
       -2.60455105e-02, 9.06443596e-03, 1.51582463e-02, 2.13279352e-02,
       3.24235554e-03, -1.50847845e-02, -2.49227346e-03, 2.49088369e-02,
       -1.09053580e-02, -3.26412031e-03, -4.93075559e-03, 5.69421658e-03,
       9.48511530e-03, 1.42436726e-02, 6.18246244e-03, 1.11303777e-02,
       2.34441459e-03, -1.25186425e-02, -1.59866009e-02, -4.24005976e-03,
       -7.70587707e-03, 8.98062997e-03, 2.32594390e-03, -3.92724015e-03,
       -6.28229929e-04, -4.43771435e-03, -7.80005613e-03,
       -6.15904387e-03, -1.25094422e-03, 2.71479245e-02, 1.79831162e-02,
       -1.50097650e-03, -5.63041540e-03, -9.01047792e-03, 3.13460734e-03,
       1.66521955e-03, 4.52010054e-03, -4.60384879e-04, 8.55668075e-03,
       7.08985049e-03, 9.26550198e-03, -2.22594640e-03, -7.67919607e-03,
       9.01200715e-03, 6.99191215e-03, -6.49603968e-03, 6.90013776e-03,
       6.36773743e-03, 3.78952269e-03, 1.27099361e-03, 1.53378360e-02,
       7.32466672e-03, -3.53414752e-03, 2.66915653e-03, -7.33997626e-03,
       4.30741301e-03, 2.47429521e-03, -6.91784266e-03, 1.94248352e-02,
       6.24599168e-03, 4.28683497e-03, 6.92078285e-03, 9.26128530e-04,
       -8.32025521e-03, 5.98062761e-03, 4.70818812e-03, -9.32671071e-04,
       2.22823257e-03, 3.01636779e-03, 1.03405938e-02, 1.47212222e-02,
       8.74021556e-03, -4.44135582e-03, -4.42644488e-03, 1.06099807e-02,
       -2.12221756e-03, 3.95607017e-03, -9.14878561e-04, 1.95466839e-02,
       6.11971039e-03, 1.16174007e-02, -8.18148162e-03, -7.96145480e-03,
       2.65923049e-03, -1.69565482e-03, 7.15961447e-03, -4.37411101e-04,
       1.31691052e-02, 1.35113450e-03, 1.03452066e-02, 1.66094815e-03,
       9.68024775e-04, 6.21861080e-03, 5.81523869e-03, 6.03664666e-03,
       -4.00257763e-03, 1.32005457e-02, 1.49861341e-02, -4.59416944e-04,
       6.96219737e-04, 3.43401614e-03, 1.45059517e-02, 1.98637927e-03,
       4.52288426e-03, -6.80372631e-03, 1.98546704e-02, 1.51471412e-02,
       2.32295226e-03, 9.15706914e-04, -1.03622014e-02, -6.82647806e-03,
       1.33399572e-03, 9.88334324e-03, 6.58388063e-03, 1.25271836e-02,
       1.04802903e-02, 1.51375064e-03, -4.79159225e-03, 5.47286682e-03,
       1.21014258e-02, 8.60660616e-03, -1.18614663e-03, 4.48652217e-03,
       8.98551755e-03, 6.96099596e-03, 7.92490132e-03, -4.40660771e-03,
       -2.68732151e-03, 1.15328201e-03, 1.83797919e-03, 6.77173166e-03,
       7.42373383e-03, 1.68949412e-03, 2.99309031e-03, -1.07423831e-02,
       -5.18000405e-03, -7.77857844e-03, 6.60240417e-03, 1.52668878e-02,
       1.51716890e-02, 3.88360582e-03, 8.48634169e-03, 3.51159228e-03,
       6.63451676e-04, -6.22721575e-03, -1.49226664e-02, 5.73672680e-03,
       2.15267129e-02, 8.92171916e-03, 1.78003381e-03, 1.68590210e-02,
       8.44760425e-03, 5.15171746e-03, -9.55987629e-03, -2.06773286e-04,
       5.41842962e-03, 1.42159276e-02, 1.28623592e-02, 8.28291639e-04,
       1.04048767e-03, -2.77547305e-03, 9.47709661e-03, 2.79620662e-03,
       -1.45342061e-03, -1.01078302e-02, 2.84785079e-03, 9.04567633e-03,
       2.81020254e-03, 1.29955886e-02, -1.17901713e-02, 3.28751910e-03,
       5.72908844e-04, -1.95522630e-03, 2.59000324e-02, 2.79814322e-02,
       -6.31501898e-03, -2.66806688e-02, -4.64339042e-03,
       -1.61819756e-02, -1.32034672e-03, -2.13646237e-03,
       -3.61005682e-03, 2.68029794e-02, 3.49258929e-02, 4.12013382e-03,
       -3.42565738e-02, -2.73989886e-03, -1.29153989e-02,
       -1.10783018e-02, 5.63592231e-03, 4.05710610e-03, 5.63014112e-03,
       1.10975187e-03, -1.52684432e-02, -1.82961989e-02, 3.37287877e-03,
       -1.71521660e-02, -1.03224181e-02, 1.24069408e-03, 1.59721309e-03,
       4.29014303e-03, 1.57652162e-02, -1.07643045e-02, -2.30718516e-02,
       -4.08920739e-03, -6.50650542e-03, -2.54164892e-03,
       -1.81955565e-02, -2.01770179e-02, 1.95983220e-02, 2.37074122e-02,
       -2.23318045e-03, -2.69459132e-02, 3.95786809e-03, 1.42861744e-02,
       -1.24517968e-03, -1.19923055e-02, -1.92383043e-02, 1.40395761e-02,
       -2.15480244e-03, -7.72823626e-03, -1.43278856e-02, 2.30238866e-02,
       1.50005019e-03, -1.92207342e-03, -1.12352492e-02, -2.67549157e-02,
       -4.77970671e-03, 7.51913898e-03, -5.42904297e-03, -1.31273195e-02,
       9.74765327e-03, 1.34093873e-02, -9.97747108e-03, -5.92472777e-03,
       -1.70463715e-02, -3.60308937e-03, -1.94556720e-03,
       -1.83924509e-03, -9.60314088e-03, 3.37383039e-02, 4.57852893e-03,
       -1.18631469e-02, -1.68810319e-03, 2.85398937e-03, -1.07807210e-02,
       1.43513940e-02, -2.93933041e-03, -3.30438430e-04, 3.98407225e-03,
       1.81427822e-02, -5.02476376e-03, 1.08893972e-03, -1.11769850e-03,
       1.03946077e-03, 1.12986164e-02, -6.82129199e-03, -1.29872216e-02,
       -9.29566938e-03, 9.66603216e-03, -6.67858403e-03, 8.60292371e-03,
       1.70370582e-02, 3.83411511e-03, 2.01048590e-02, 2.85314192e-04,
       4.95315483e-03, 1.37253422e-02, 1.34537863e-02, 8.59357417e-03,
       2.26146216e-03, 6.57199230e-03, -3.42020183e-03, 6.80373097e-03,
       -4.27403348e-03, 5.29012468e-04, 1.77721214e-03, 1.02387937e-02,
       -9.24113672e-03, -5.97344059e-03, 4.77277860e-03, 1.43749006e-02,
       1.26138693e-02, -4.33763955e-03, -7.42341811e-03, -1.61841940e-02,
       -4.29797499e-03, -1.96278468e-03, -7.82196503e-03, 4.59214253e-03,
       8.89232848e-03, 8.26426782e-04, -1.06793398e-03, 1.06571885e-02,
       -1.35150400e-03, 3.85061908e-03, 6.95728045e-03, -6.34110474e-04,
       -1.04277744e-03, 4.09691501e-03, 4.81281336e-03, -6.10558875e-03,
       -7.11087929e-03, 3.85725126e-03, -1.16593707e-02, 6.39713788e-03,
       -8.53388198e-03, -4.91203601e-03, -1.77853450e-03,
       -8.14045500e-03, -7.67740374e-03, -7.66798994e-03,
       -9.14759655e-03, -5.64733567e-03, 4.62455209e-03, -3.01646139e-03,
       -4.93544200e-03, 2.70675146e-03, -4.39761207e-03, -8.49327538e-04,
       2.70717405e-02, 1.00593490e-03, -1.98936905e-03, 6.34862250e-03,
       5.69363032e-03, 7.05058966e-03, -1.98918302e-03, 1.01713054e-02,
       -6.89676730e-03, 2.07495485e-02, 3.41996807e-03, 6.43841457e-04,
       -1.05304029e-02, -1.22482274e-02, -8.53780005e-03, 9.63075459e-03,
       -1.79151224e-03, 4.78188973e-04, 3.73055693e-03, 1.54872546e-02,
       -3.95968184e-03, -7.11555826e-03, -3.98773095e-03,
       -1.13353680e-03, -2.55433493e-04, 8.01496953e-03, -9.05859750e-03,
       2.05416586e-02, 1.23183308e-02, -8.03742744e-03, -1.49425846e-02,
       -3.53336916e-03, -7.90787302e-03, 4.34543239e-03, 1.55414408e-02,
       -5.52820601e-03, 1.18293120e-02, 2.68250122e-03, -1.35198208e-02,
       -9.38270427e-03, -7.16202753e-03, -2.02245209e-02,
       -9.39429458e-03, 6.31743111e-04, -5.69361914e-03, 8.08489509e-04,
       -2.05471702e-02, -9.92786884e-03, -8.82024411e-04, 7.28388550e-03,
       1.06875254e-02, 1.11556966e-02, 1.73363369e-02, -5.36325295e-03,
       -3.31930141e-03, 1.33539527e-03, 6.74167182e-03, 1.03857508e-02,
       2.71984600e-02, 2.10658368e-02, 4.71975468e-03, 8.42437148e-03,
       3.50714591e-03, -8.80465098e-03, -4.11705766e-03, -3.15355905e-03,
       1.36743188e-02, 1.05351061e-02, 5.81184588e-03, 5.88266272e-03,
       -2.19350375e-04, 5.32751344e-03, 3.74383200e-03, -2.26278026e-02,
       -6.82720821e-03, 2.46491414e-02, 1.00811375e-02, 5.30618895e-03,
       -1.21722976e-02, 2.51501543e-03, -8.99997540e-03, -9.95771121e-03,
       -1.24857863e-02, 1.78660117e-02, 3.09568606e-02, 2.94999965e-02,
       1.42048290e-02, 8.16372223e-03, 6.04509981e-03, -1.10497593e-03,
       -8.15756153e-03, 1.78712048e-02, 4.31100093e-03, 4.05768957e-03,
       -3.71942017e-03, -1.11124748e-02, -1.52136115e-02,
       -1.35532068e-02, -8.96851066e-03, -1.99759398e-02,
       -6.86832611e-03, 1.16960872e-02, 3.42918299e-02, 1.99840236e-02,
       9.99115128e-03, 7.57004926e-03, 1.90828145e-02, 2.71310494e-03,
       4.46073199e-03, 8.59793089e-03, 5.83595876e-03, 1.75709918e-03,
       5.93316648e-03, -4.63039707e-03, -1.38094472e-02, -1.59592030e-03,
       -3.71621829e-03, 1.79869309e-02, 1.34290019e-02, 1.49195706e-02,
       9.06421989e-03, 1.91491246e-02, -8.76808725e-03, -1.50345610e-02,
       -3.77951213e-03, 4.82808705e-03, -3.77463177e-03, -9.11391247e-03,
       5.65384002e-03, -5.14146220e-03, 1.15920445e-02, -1.24374609e-02,
       -1.02555910e-02, -7.55389128e-03, 1.20805148e-02, 2.04784032e-02,
       2.56329076e-03, 2.76094838e-03, -1.15411473e-03, 4.02385043e-03,
       4.17115958e-03, 1.40618635e-02, 2.22311728e-03, -9.33968183e-03,
       6.87944936e-03, 6.79784222e-03, 1.53190413e-05, 1.94244925e-02,
       3.84251820e-03, -1.83125515e-03, -4.47861012e-03, 4.75436333e-04,
       -1.33766439e-02, 3.34811048e-03, -1.32145046e-03, 2.25445665e-02,
       5.83641371e-03, -8.32284521e-03, -9.60618258e-03, 1.17106503e-02,
       9.37107578e-03, 1.40427612e-02, 1.63221136e-02, 1.57619845e-02,
       9.34603065e-03, 2.63332836e-02, -3.44083854e-03, -2.30132267e-02,
       -1.63461547e-03, 1.93393952e-03, 4.65048105e-03, 1.86942704e-02,
       1.45487790e-03, 1.94438372e-03, 2.10952312e-02, 7.71608809e-03,
       -1.63782369e-02, -1.74307136e-03, -8.26754607e-04,
       -6.77763345e-03, 7.36424280e-03, -1.94174750e-03, -3.52878589e-03,
       7.52107194e-03, 1.24449925e-02, -8.57767928e-03, -1.09134614e-02,
       4.13314998e-03, 9.63864010e-03, 7.21685775e-03, -7.35191861e-03,
       1.00588109e-02, 2.80996151e-02, 1.44643374e-02, -2.52962559e-02,
       -6.83331024e-03, 1.27237302e-03, 1.26472525e-02, 2.06349567e-02,
       6.61065849e-03, -5.94641373e-04, 2.79103555e-02, 1.13882301e-02,
       1.87309482e-03, 7.20594311e-03, -1.73298665e-03, -5.98011864e-03,
       1.85975991e-03, -1.76340097e-03, -6.66996418e-03, -3.86950141e-03,
       -1.33163377e-03, -3.50940973e-03, 2.34355405e-03, 9.20811016e-03,
       1.30693018e-02, 4.71834233e-03, -4.37334040e-03, -1.69699248e-02,
       -1.83820482e-02, -2.01221108e-02, -9.54397861e-03, 8.30316171e-03,
       3.33410641e-03, -9.18376911e-03, -4.59575094e-03, -1.30599979e-02,
       -7.93913379e-03, 8.55887681e-03, -5.96982613e-03, 7.58961262e-03,
       2.89164367e-03, 5.32713858e-03, -3.48064350e-05, 7.75004318e-03,
       1.15950285e-02, 2.90537742e-03, -5.45243919e-03, -2.34780256e-02,
       -4.56593605e-03, 2.64377939e-03, 7.55837653e-03, 1.39547857e-02,
       5.26331086e-03, -4.79000108e-03, -3.07017443e-04, -4.38710395e-03,
       -8.53946060e-03, -6.69160916e-04, 2.92058513e-02, -1.37744320e-03,
       -1.07202202e-03, 1.47723872e-03, 2.41524703e-03, -1.32875778e-02,
       -1.30960504e-02, -1.56310350e-02, -9.58034769e-03, 6.26328355e-03,
       -1.37333376e-02, -4.75719711e-03, -3.24543305e-02,
       -1.56086329e-02, 1.05298720e-02, -1.96773466e-03, -1.34387687e-02,
       1.12933647e-02, 2.70021968e-02, 4.59282892e-03, 1.13859484e-02,
       8.02449044e-03, 3.83095769e-03, 2.02726130e-03, -1.47773353e-02,
       -5.24035096e-03, 6.06043218e-03, 1.08503327e-02, 9.47125882e-05,
       -4.26792353e-03, -2.00083926e-02, -8.23599380e-03,
       -5.80855925e-03, -8.02201126e-03, -7.13315234e-03,
       -1.07208602e-02, 9.07731988e-03, -1.10052871e-02, -7.89988600e-03,
       -3.20895873e-02, -3.56926466e-03, -9.46182013e-03,
       -5.44538349e-03, 7.55048497e-03, -4.79365373e-03, 2.36077383e-02,
       6.39647525e-03, -4.26755752e-03, -2.32651401e-02, 4.07084124e-03,
       5.73380711e-03, 2.24383315e-03, 1.36603005e-02, 1.02174031e-02,
       7.66513776e-03, 5.10162354e-05, -4.84734029e-03, -1.80354493e-03,
       9.29036585e-04, 2.17873626e-03, 7.09591724e-04, 9.33876354e-03,
       1.51621467e-02, 8.60449672e-03, 2.47787661e-03, -1.17294202e-02,
       -1.27325458e-02, 4.53669764e-03, -1.50197456e-02, -1.30739445e-02,
       9.00068134e-03, -6.46441290e-03, 2.61806902e-02, 2.43367115e-03,
       -8.26585200e-03, -1.00182462e-02, -8.22515503e-05,
       -2.59420672e-03, -1.69721507e-02, -3.80765437e-03, 8.48628767e-03,
       3.33145484e-02, 1.35995476e-02, -1.00778257e-02, 4.39861789e-03,
       -7.97989836e-04, -5.28903620e-04, 1.50407478e-03, 1.23626227e-02,
       1.31888418e-02, 1.98266059e-02, 5.01160882e-03, -9.16336197e-03,
       -1.54378656e-02, -8.28500185e-03, -8.07992276e-03,
       -1.64866298e-02, 4.28423111e-04, 1.51885059e-02, 3.41140740e-02,
       1.50857056e-02, -7.92248640e-03, -7.51085253e-03, -9.51619260e-03,
       3.56767676e-03, 8.04921705e-03, -9.45148338e-03, 1.51760178e-03,
       3.89348865e-02, 1.19529478e-02, -7.24614970e-03, -3.30608105e-03,
       -9.33353789e-03, -4.53096302e-03, -4.76692477e-03,
       -4.87750024e-03, -1.14528444e-02, 5.25398366e-03, -1.01029193e-02,
       1.58391718e-03, -8.29876680e-03, -1.02739669e-02, -2.99046375e-03,
       -8.53787269e-03, -1.30954466e-03, 3.64567200e-03, 2.30406355e-02,
       1.17480503e-02, -8.11165292e-03, -2.18036380e-02, -1.25224683e-02,
       5.23685478e-03, 4.78393678e-03, 1.24092521e-02, 5.23589691e-03,
       1.14903133e-02, 1.13290350e-03, 1.32502476e-02, -1.67359435e-03,
       -3.67375463e-03, -2.08964609e-02, -1.15164770e-02, 6.66936906e-03,
       -6.07174495e-03, 1.15770092e-02, -1.58775095e-02, -3.57419509e-03,
       -8.37721396e-03, -4.69261222e-03, -1.19428737e-02,
       -1.08352141e-03, -1.92344142e-03, -1.43916970e-02, 2.69005494e-03,
       -1.03949038e-02, -4.61660651e-03, -1.41653130e-02,
       -8.38780776e-03, 6.29842002e-03, 7.74619111e-04, 1.36676319e-02,
       7.84876850e-03, 1.80314444e-02, 1.26739163e-02, 1.85162444e-02,
       1.10486820e-02, 1.00299902e-02, -8.28359276e-03, -5.97700942e-03,
       3.14494199e-03, -3.32986005e-03, 1.39090233e-02, 1.16978334e-02,
       3.31454240e-02, 1.22113584e-03, 5.80220390e-03, 9.36039630e-03,
       7.41245039e-03, 4.87155607e-03, -1.96090993e-02, -7.68060004e-03,
       8.36231466e-03, 2.10598679e-04, -6.86000707e-03, 1.32407025e-02,
       1.21487761e-02, 1.08817639e-03, -4.10263008e-03, -1.04889069e-02,
       9.92295425e-03, 6.93415664e-03, -4.03659884e-03, -5.53599605e-03,
       3.22608426e-02, -4.81032860e-03, 4.63760551e-03, -1.23586052e-03,
       -5.72480774e-03, 4.50415909e-03, 2.32939217e-02, 3.31206918e-02,
       1.07625164e-02, 9.29386634e-03, -1.25303147e-02, -1.04680257e-02,
       -1.13414703e-02, -1.21042756e-02, 7.87984021e-03, 1.73805933e-02,
       5.92282601e-03, 7.11026881e-03, 9.36745666e-03, -4.96543990e-03,
       -1.29534910e-02, 1.46290520e-03, 5.45432698e-03, 4.05147625e-03,
       2.63531469e-02, 4.48018499e-03, 1.20498100e-02, 1.35384575e-02,
       7.56884739e-03, -2.48115906e-03, -1.44954456e-03, -8.68687872e-03,
       1.01007801e-02, 3.84716713e-03, 1.42495399e-02, 1.17844408e-02,
       1.02380095e-02, 3.94200673e-03, -1.62709840e-02, -1.18123805e-02,
       5.32530062e-03, 9.28677502e-04, 2.32222211e-02, 9.91564430e-03,
       1.47183212e-02, 1.41616492e-02, 3.25725717e-03, -1.95464157e-02,
       -1.16511192e-02, -1.16311861e-02, 8.33619852e-03, -8.62712227e-03,
       -1.02753146e-03, 8.01498257e-03, 9.33038630e-03, -5.33953914e-03,
       7.13175815e-03, -1.88643648e-03, -1.80126948e-03, 4.30485787e-04,
       -6.87097479e-03, -6.99092401e-03, 2.01116345e-04, -1.04746679e-02,
       -1.13741504e-02, 1.58116315e-02, 8.04778468e-03, -3.17941722e-03,
       -3.49238398e-03, -5.20589715e-03, -1.28313284e-02,
       -7.65731791e-03, 4.85508877e-04, -1.35549828e-02, 5.58578316e-03,
       1.18892416e-02, 4.89977421e-03, 1.60130598e-02, -1.81346305e-03,
       -9.32540838e-03, -2.38146330e-03, -8.27487838e-03,
       -2.04635840e-02, 1.61725637e-02, 1.21465633e-02, 1.84584013e-03,
       3.11610429e-03, 1.09521281e-02, -1.94962732e-02, -4.37095854e-03,
       -5.88510698e-03, 5.22361463e-03, 5.44520619e-04, -7.10077910e-03,
       -5.65800956e-03, -2.98416824e-03, -1.27665671e-02,
       -9.12844948e-03, -1.22212470e-02, 3.51575203e-03, -4.81587742e-03,
       -1.79458614e-02, -1.43016232e-02, -9.07420460e-03, 6.69450406e-03,
       -1.11210160e-03, 1.15283625e-03, -5.13411686e-03, 6.44558901e-03,
       2.74396781e-02, 2.40441021e-02, 2.21632756e-02, 1.71794891e-02,
       -7.09256809e-03, -1.14124464e-02, -1.68390898e-03, 1.30965030e-02,
       2.20550559e-02, 1.91506334e-02, 5.46033680e-03, -7.25741906e-04,
       -5.61129593e-04, -1.05050541e-02, -2.05557831e-02, 2.09135306e-03,
       7.88931362e-03, 1.65611263e-02, -1.08886557e-02, -2.27437774e-03,
       2.59681474e-02, 2.51558647e-02, 2.20860485e-02, 1.45598333e-02,
       -4.20478964e-03, -1.70770604e-02, -1.31625244e-02,
       -1.54415262e-04, 2.90994383e-02, 3.85835990e-02, 3.28264274e-02,
       -3.38040595e-03, 7.09339557e-03, -1.66331474e-02, -2.14768145e-02,
       -1.80315431e-02, 1.16803218e-02, 3.09646386e-03, 2.69227307e-02,
       2.77674999e-02, 1.59738995e-02, 1.83336418e-02, 1.73814595e-02,
       -8.11244012e-04, 3.88975209e-03, -2.13392358e-02, 2.51483900e-04,
       1.08456484e-03, 4.79824701e-03, 3.35406768e-03, 3.51823401e-03,
       -1.26707898e-02, -1.54023608e-02, -2.62979623e-02, 2.22170912e-02,
       4.14483137e-02, 3.63923386e-02, 2.65518352e-02, 7.11570401e-03,
       7.43514625e-03, 4.72985301e-03, 6.85779238e-03, 1.01225637e-02,
       2.44443235e-03, -1.53345242e-02, -7.29079079e-03, -7.39083206e-03,
       -9.98302549e-03, -1.07249524e-02, 3.62091674e-03, 4.37776651e-03,
       -5.06239943e-04, -3.67118884e-03, 5.79233421e-03, -1.11905672e-03,
       -2.52478756e-03, -1.12955840e-02, -4.32740990e-03,
       -2.46604206e-03, 1.13687981e-02, -1.24013964e-02, 3.86990793e-03,
       -1.31510738e-02, -8.52876436e-03, -1.57907624e-02,
       -1.74273141e-02, -1.43003101e-02, 8.84500449e-04, 5.46073401e-03,
       -7.43494928e-03, 1.79227628e-02, -3.83139262e-03, 3.31636867e-03,
       -3.45935603e-03, 3.28185037e-03, 1.97973265e-03, 1.33949779e-02,
       1.14767561e-02, 4.08868119e-03, 9.12291277e-03, 1.57240946e-02,
       6.64996030e-03, 1.01201644e-03, -3.67354514e-04, -8.32845550e-03,
       1.83936376e-02, 5.29884174e-03, -1.46179320e-02, 2.19134204e-02,
       -1.01851101e-03, 5.16691478e-03, -8.56929179e-03, 1.07372715e-03,
       -1.42521109e-03, 1.96341760e-02, 1.49462409e-02, 1.10748103e-02,
       2.94221658e-03, 3.57387541e-03, -2.95307953e-03, -2.10275594e-02,
       -1.64311528e-02, -1.32435914e-02, -1.25433342e-03, 5.65416226e-03,
       1.31912786e-03, 1.73953790e-02, 2.03386415e-02, 3.58277233e-03,
       -7.73035316e-03, 2.09550336e-02, 7.73169054e-03, 1.67486910e-02,
       1.18713602e-02, 1.82565507e-02, 2.62063034e-02, 1.62715558e-02,
       7.36420136e-03, -5.72111690e-03, 1.72056798e-02, -3.72715411e-04,
       6.03169901e-03, 4.28345427e-03, 1.48268053e-02, 6.94060931e-03,
       -8.58819869e-04, 5.27814589e-03, -2.86987498e-02, 1.03208527e-04,
       -7.74642499e-03, 7.59973831e-04, 1.22086925e-03, 2.60777236e-03,
       6.61655096e-03, -1.38337975e-02, -2.19052611e-03, -2.21472289e-02,
       1.45998737e-02, -1.30498745e-02, 6.60394970e-03, -1.96570661e-02,
       8.49164499e-04, 1.95266660e-02, 1.93536729e-02, 2.57977266e-02,
       -4.42546559e-03, 2.93484442e-02, 3.53814289e-03, 1.46473916e-02,
       2.06649443e-03, 4.21977695e-03, 5.66687295e-03, 1.07186763e-02,
       6.42077252e-03, 3.10510583e-03, 1.49603914e-02, 6.60947524e-04,
       4.55260882e-03, 1.24234557e-02, 1.12007679e-02, 3.99341481e-03,
       -3.96089774e-04, -2.01998767e-03, -2.77589285e-03, 3.51448953e-02,
       1.75244978e-03, 1.26468930e-02, -1.47333592e-02, -6.54001161e-03,
       -1.39975678e-02, -1.84223950e-02, -1.15352124e-02,
       -1.46928569e-02, 2.50876639e-02, -2.44884868e-03, 1.00625232e-02,
       -1.06348284e-03, -8.94197170e-03, 4.12036059e-03, 2.52796337e-03,
       3.64890113e-03, 1.60230678e-02, 1.72142889e-02, 1.15698734e-02,
       2.44599059e-02, 2.83462908e-02, 2.09836680e-02, 1.10867377e-02,
       -3.60334804e-03, 1.17184697e-02, 1.89975149e-03, 3.01074982e-03,
       4.33775969e-03, 2.00158451e-02, 2.19658837e-02, 2.06887145e-02,
       -1.80624425e-02, -1.11516593e-02, 2.72508594e-03, -1.47984037e-02,
       2.20950842e-02, 1.35278981e-02, 2.92213019e-02, 7.43273040e-03,
       -2.66378885e-03, -1.86201837e-02, -1.86765157e-02, 9.96242836e-03,
       -1.53717296e-02, 2.06311159e-02, 3.08659580e-03, 1.41036706e-02,
       -6.93588564e-03, -1.05041862e-02, 1.44719584e-02, 1.19526144e-02,
       7.86136650e-03, -2.07493198e-03, -1.31146784e-03, -4.70248144e-03,
       6.79363497e-04, 2.11084373e-02, 3.30368914e-02, 1.88818201e-02,
       6.33628713e-03, -5.45465700e-05, -3.74782505e-03, -1.02628050e-02,
       -5.04631735e-03, 2.33095558e-03, 2.41543930e-02, 3.32267135e-02,
       -1.35838399e-02, -1.49246790e-02, 1.75452969e-05, -1.68923140e-02,
       1.04832109e-02, -1.24579053e-02, 8.29289295e-03, 4.02732426e-03,
       -2.17997847e-04, 9.77918133e-03, 7.63742765e-03, 1.67710357e-03,
       -2.42535137e-02, -2.73301546e-03, -1.38746817e-02, 1.50357205e-02,
       1.57034975e-02, 2.98038200e-02, -3.94938933e-03, 3.10668442e-03,
       -9.87464678e-04, 3.17927799e-03, -1.13860285e-02, -1.18473023e-02,
       1.57636509e-03, 2.88423933e-02, 1.22293523e-02, 7.49528455e-03,
       1.62623711e-02, 4.41498728e-03, 1.44866928e-02, -3.93036474e-03,
       -3.41582415e-03, 7.46012898e-03, 1.75411422e-02, 2.41990034e-02,
       -1.96704757e-03, 2.74439972e-05, 7.13941967e-03, -1.91360991e-02,
       -1.23388823e-02, -3.13906535e-03, 2.84236651e-02, 3.41043882e-02,
       -1.81941595e-03, -3.69433616e-03, 1.75346043e-02, 7.19913002e-03,
       -7.45305372e-03, -4.36151546e-04, 1.49947940e-03, 2.51317527e-02,
       1.97741184e-02, -9.78250336e-03, 2.33460441e-02, 7.47269299e-03,
       8.77283048e-03, 3.53647023e-03, 4.55397135e-03, -8.71262792e-03,
       -4.41938220e-03, 1.02012102e-02, 3.62462662e-02, -1.19403312e-02,
       -1.68905668e-02, -5.62481675e-03, -9.77059267e-03, 5.31534012e-03,
       -4.12966218e-03, -1.17244283e-02, 2.33032294e-02, 1.88707709e-02,
       1.14064291e-02, 4.16926295e-03, 3.82194319e-03, -2.16366611e-02,
       -2.26915609e-02, -2.40822937e-02, 5.24192723e-03, 1.82829015e-02,
       -7.63061107e-04, 7.52382679e-04, -2.84929341e-03, 5.45939151e-03,
       -2.00957749e-02, -1.29412608e-02, -1.25117125e-02, 1.58611275e-02,
       3.21152844e-02, -4.40602377e-03, -1.59859881e-02, -2.57189069e-02,
       -1.25766611e-02, -2.57027037e-02, -9.80218872e-03,
       -2.50150058e-02, -2.59747002e-02, -8.70403659e-04,
       -5.25164837e-03, 9.90574248e-03, 1.31318718e-02, 7.59505155e-03,
       -1.95805617e-02, -1.79832727e-02, -1.11868158e-02,
       -1.35325482e-02, 7.98674207e-03, 5.17616607e-03, -1.39497565e-02,
       1.45582668e-02, 1.25224292e-02, -1.85802188e-02, -4.08795383e-03,
       -1.00415163e-02, 1.83922071e-02, 2.67940331e-02, -1.59981325e-02,
       1.46348998e-02, 3.65785733e-02, 4.49923985e-02, 9.06451046e-03,
       1.49320241e-03, 1.91987101e-02, 2.25474928e-02, 2.88847256e-02,
       1.18400967e-02, -5.02978917e-03, -6.60543935e-03, -7.54247885e-03,
       -1.66095607e-02, -2.17209831e-02, -9.99852084e-03,
       -5.04923984e-04, 8.78005568e-03, -3.64196626e-03, -2.57684514e-02,
       -2.91426554e-02, -3.25524919e-02, -2.60648225e-02,
       -2.90900399e-03, -2.00958960e-02, -9.69825312e-03,
       -6.90230494e-03, -9.12250765e-03, 2.28473525e-02, 3.59568149e-02,
       3.47744599e-02, 1.40846735e-02, 6.76088547e-03, 2.12029554e-02,
       1.12778191e-02, 2.40728352e-02, 1.92443803e-02, 1.43700894e-02,
       1.26906373e-02, 7.29945349e-03, 7.55016739e-03, 3.61302006e-03,
       2.60940380e-03, 3.74347740e-03, 1.11243352e-02, 4.99107037e-03,
       -8.95211066e-04, -5.55278780e-03, -7.18567241e-03,
       -2.52024108e-03, 2.96153203e-02, 2.43245699e-02, 9.97024402e-03,
       2.75933137e-03, 2.21348424e-02, -2.38837898e-02, -3.03539764e-02,
       -2.54059192e-02, -3.86718735e-02, 1.44532043e-02, -3.15566501e-03,
       -9.52609722e-03, -8.32995772e-03, -5.87431062e-03, 1.52190235e-02,
       1.83892734e-02, 2.50815153e-02, 2.65097469e-02, 2.03586128e-02,
       3.48734297e-02, 3.24866958e-02, 1.49263786e-02, 2.03090049e-02,
       -2.71022823e-02, -1.28938798e-02, 1.58622651e-03, -4.06728359e-03,
       1.85902473e-02, -5.74993948e-03, -9.91711486e-03, -2.11605821e-02,
       -1.87850147e-02, 1.41583225e-02, -8.88951775e-03, -1.36481076e-02,
       8.48746207e-03, 5.66425966e-03, 8.41472950e-03, -3.46941315e-03,
       2.26834603e-03, 2.19877958e-02, 5.63992001e-03, -1.59049854e-02,
       -1.34601323e-02, -9.66753718e-03, -3.29040340e-04,
       -1.86806135e-02, -1.43825961e-02, -1.17552569e-02, 2.50352360e-02,
       6.61147386e-03, -4.81493585e-03, -5.03413379e-03, 1.25316670e-02,
       1.78603008e-02, 1.00748017e-02, -3.63983517e-03, 8.92860722e-03,
       1.13137532e-02, 2.66008847e-03, 1.05551945e-03, 9.71967063e-04,
       8.55486095e-03, 8.64353683e-03, 7.89946504e-03, -2.00775899e-02,
       -7.42805470e-03, 1.40087577e-02, -1.46599421e-02, 3.39595228e-03,
       1.08763883e-02, 1.21723465e-03, 1.49990246e-02, -4.00582748e-03,
       -1.69493817e-02, -2.22343970e-02, -9.80957411e-03,
       -5.94237633e-03, 1.65706947e-02, 1.32588847e-02, 1.86858084e-02,
       1.09461248e-02, 2.13402864e-02, -8.41120351e-03, -1.82737652e-02,
       -6.08458463e-03, -1.94225442e-02, -1.21187363e-02,
       -1.11150905e-03, 1.90598872e-02, 3.47732045e-02, 1.37003809e-02,
       -4.90225945e-03, -2.79015349e-03, -1.58840083e-02,
       -2.68627219e-02, -6.41469751e-03, 8.29709228e-03, 1.71834677e-02,
       1.57581586e-02, 2.17315760e-02, 1.81461610e-02, 1.72826853e-02,
       -1.53110707e-02, 7.27163767e-03, 2.15815213e-02, 2.41980460e-02,
       7.12176901e-04, -1.33758252e-02, -1.30537478e-02, 1.40173093e-03,
       6.87644305e-03, 7.13157374e-03, 2.45656818e-03, 4.85622138e-03,
       -7.74226012e-03, -1.51964594e-02, -3.13773900e-02,
       -2.24309862e-02, 1.59510318e-02, 1.49225323e-02, 2.06281096e-02,
       2.00691679e-03, 2.78355670e-03, 1.03273550e-02, -4.79809503e-04,
       -4.66739899e-03, 1.46799460e-02, 3.09298281e-02, 2.35419944e-02,
       6.25174167e-03, 3.74544936e-04, -6.84181403e-04, -7.74890766e-04,
       -2.44833343e-03, 9.73582547e-03, -1.39909387e-02, -2.76231882e-03,
       1.52675463e-02, 2.03023218e-02, -1.32262195e-02, -2.21966393e-03,
       8.33821576e-03, 1.17397839e-02, 8.75621289e-03, 1.82494801e-02,
       2.33115479e-02, 1.15701100e-02, 1.75166130e-02, -2.36481410e-02,
       -2.40568183e-02, -1.92110557e-02, -1.51434382e-02,
       -1.37352932e-03, 1.18452739e-02, 1.87431625e-03, 5.47149731e-03,
       -1.68597177e-02, -2.46539526e-03, 1.24048507e-02, 2.65565384e-02,
       2.22574566e-02, 1.68151204e-02, 1.86155718e-02, 5.99921588e-03,
       1.09811248e-02, 1.21217938e-02, -2.23593917e-02, -1.34349586e-02,
       8.85746349e-03, 4.94027976e-03, 1.24880928e-03, 3.13645671e-03,
       -1.38560301e-02, -1.11205373e-02, -2.81624831e-02, 1.07619772e-02,
       -7.90322199e-03, 2.41704751e-03, 4.26722178e-03, 5.04669081e-03,
       5.80437807e-03, 9.85419191e-03, 1.09839253e-02, 6.26088772e-03,
       5.05968416e-03, -1.64897386e-02, 3.00762895e-03, -7.16081867e-03,
       4.69906162e-03, -7.21281581e-03, -4.90943948e-03, -1.07038720e-02,
       5.09247137e-03, 9.51627269e-03, 4.50353557e-03, 1.39335943e-02,
       1.62607729e-02, 1.54775791e-02, 1.53223975e-02, 1.10687334e-02,
       8.83939117e-03, -1.13990228e-03, -1.70519315e-02, -1.53449951e-02,
       -1.40489498e-02, -1.26394350e-02, 1.09211085e-02, -1.39140505e-02,
       -7.89516885e-03, -1.69415846e-02, 5.58303623e-03, 1.00398054e-02,
       -4.02818760e-03, -9.75183153e-04, 2.25986168e-03, 2.03673560e-02,
       1.38606476e-02, 2.64602229e-02, 8.58999044e-03, 1.38256447e-02,
       -5.00111934e-03, 3.45772678e-05, -1.60287961e-03, -1.53786503e-02,
       4.81079798e-03, -5.25106303e-03, 5.32064913e-03, -5.98168885e-03,
       -2.39645495e-04, -8.79264250e-03, 1.15999440e-02, 1.87625419e-02,
       1.54884700e-02, 2.26956792e-02, 3.87621392e-03, 1.54780680e-02,
       -8.66760907e-04, 1.17121311e-02, -1.63991433e-02, 1.64121762e-02,
       -1.75144058e-03, -2.47150403e-03, -1.34788500e-03,
       -2.93271579e-02, -5.26095089e-03, -1.00976173e-02, 6.68858294e-04,
       6.77125854e-03, 5.89776086e-03, 1.45118330e-02, -6.05074409e-03,
       2.38604862e-02, 4.82859602e-03, 4.48750751e-03, 7.82425329e-03,
       1.40029564e-02, -5.11064893e-03, -6.74042711e-03, 9.01811942e-03,
       -5.42743364e-03, 2.62453854e-02, 1.12197744e-02, 2.12118253e-02,
       -4.80947737e-03, -4.07874631e-03, -7.82242976e-03,
       -6.44268002e-03, 5.51818963e-03, -2.98129558e-03, 1.99261047e-02,
       -7.38340942e-03, 1.06210951e-02, 6.44321926e-03, 1.38950739e-02,
       -6.04788028e-03, -2.02461351e-02, 6.37965713e-05, 3.78328399e-03,
       2.32525319e-02, 9.05810017e-03, 8.78768601e-03, -1.19994637e-02,
       3.24823102e-03, -1.99628193e-02, -1.30429119e-02, 5.74754365e-03,
       7.64056342e-03, 3.69960219e-02, 9.47455782e-03, 1.45608177e-02,
       1.12287467e-03, -2.22149789e-02, -1.66814048e-02, -1.18799359e-02,
       1.53175341e-02, 4.58807964e-03, 3.65342051e-02, 7.20170187e-03,
       1.69582553e-02, -4.24722070e-03, -1.79879256e-02, -4.17514658e-03,
       -9.60477255e-03, 1.38185276e-02, 3.24443392e-02, 2.64038313e-02,
       8.44908133e-03, -3.27419932e-03, -1.58454794e-02, -1.18438210e-02,
       -1.06986305e-02, -9.96860303e-03, 1.82268098e-02, 2.37588882e-02,
       2.85090171e-02, 2.07282114e-03, 2.22286256e-03, -9.31713358e-03,
       -4.01343778e-03, -1.51872747e-02, 4.32604505e-03, 6.48189103e-03,
       -1.49712116e-02, 2.49132738e-02, 7.49802124e-03, 1.33536402e-02,
       -9.05507896e-03, -8.68752226e-03, -5.00094378e-03,
       -5.54634782e-04, -6.22118750e-05, -4.73768776e-03, 1.18482318e-02,
       1.00968033e-02, 1.26445666e-02, -2.10931897e-03, 6.09375711e-04,
       -1.08882170e-02, -1.90637959e-03, 8.10001139e-03, -6.74979342e-03,
       1.52115328e-02, 4.50946885e-04, 6.53219130e-03, -5.55708678e-03,
       3.18679190e-03, 6.00377657e-03, 1.81494048e-03, 7.71854585e-03,
       -2.30123289e-03, 2.09884485e-03, 9.91130946e-04, 1.06089609e-02,
       9.67012160e-03, -2.43326207e-03, 8.09373613e-03, -3.22974217e-03,
       -1.90563360e-03, -1.11542484e-02, 4.82305279e-03, -8.41896608e-03,
       1.02461027e-02, 1.18531622e-02, 1.60856973e-02, 2.03828327e-02,
       1.09693054e-02, 6.21800451e-03, -1.61095746e-02, -1.12071969e-02,
       -1.71563495e-02, 9.42259096e-04, 8.66125152e-03, 3.02699860e-02,
       1.37753151e-02, -7.64559535e-03, -4.05173842e-03, -1.42822806e-02,
       2.19213031e-03, -1.20568369e-02, 6.63266424e-03, 8.23033694e-03,
       8.85988120e-03, 1.79088172e-02, -1.66651292e-03, -1.03466818e-02,
       -8.83955974e-03, -2.13979650e-03, -6.93359599e-03, 1.77127328e-02,
       2.01151073e-02, 2.62409952e-02, 1.11890575e-02, 5.63861430e-03,
       9.67703760e-03, -1.49116050e-02, -8.67026858e-03, -6.61520334e-03,
       5.19201905e-03, 1.72690786e-02, 1.44591862e-02, -1.32053401e-02,
       1.29601387e-02, 9.06108879e-03, -8.67669471e-03, -7.42774410e-03,
       -1.86798498e-02, -1.04833161e-02, 2.73387996e-03, -6.45865267e-03,
       1.55012291e-02, 1.61446980e-03, -9.49790515e-03, -1.50015447e-02,
       -1.41524132e-02, -1.73520960e-03, 1.38577260e-02, 3.42632309e-02,
       2.85004880e-02, -5.86982630e-03, 5.89095755e-03, -8.79976247e-03,
       -1.72424689e-02, -5.42269135e-03, -1.86640136e-02, 9.89541598e-03,
       3.13322730e-02, 8.30510072e-03, -5.35892695e-03, 1.95246711e-02,
       1.28946993e-02, 1.65678328e-04, -9.26336739e-03, -1.53634930e-02,
       -1.09562064e-02, -1.22256298e-02, -4.64073708e-03, 5.66188525e-03,
       1.98907778e-02, 1.88722555e-02, -2.15710071e-03, -8.20952933e-03,
       -7.09471817e-04, -7.32932705e-03, 1.29626244e-02, 9.98385809e-03,
       1.57533400e-02, 1.14971083e-02, 9.64920968e-03, -7.01733725e-03,
       -8.73861311e-04, -2.04990767e-02, -8.21150932e-03, 1.48291765e-02,
       4.98927152e-03, 1.03332484e-02, 2.23841816e-02, -3.44568654e-03,
       -1.87659189e-02, -1.86018962e-02, -8.14282987e-03,
       -1.45927388e-02, 1.15106143e-02, 4.17199079e-03, 4.15639672e-03,
       1.22214165e-02, 7.69395521e-03, -7.98510574e-03, -1.02042761e-02,
       -4.36847238e-03, -2.38393736e-03, 5.33628743e-03, -7.87571259e-03,
       1.42741976e-02, 1.88617185e-02, 2.46013757e-02, -7.64757954e-03,
       -3.64104076e-03, 8.93259421e-03, 5.59430849e-03, 1.93061866e-02,
       1.01099396e-02, 1.22460779e-02, 7.77852442e-03, -9.81898885e-03,
       -2.02286188e-02, -1.60675067e-02, -6.82549272e-03,
       -2.24692076e-02, -4.06754157e-03, 8.77876359e-04, 1.20348539e-02,
       1.35118151e-02, 6.41268631e-03, -4.12619999e-03, -1.07256938e-02,
       1.30002070e-02, -3.02129239e-03, 1.36067392e-02, 1.48793282e-02,
       2.21619923e-02, 1.79372020e-02, 2.05559246e-02, -1.03552884e-03,
       -7.61095528e-03, 2.46859645e-03, -3.80439474e-03, 1.23083629e-02,
       -1.24809274e-03, 1.98431313e-02, 1.20572885e-02, 1.69207547e-02,
       -5.26575430e-04, 6.51419954e-03, 9.90035757e-03, -4.79002297e-03,
       -3.57451872e-03, -3.55537841e-03, 4.88694338e-03, -6.31754985e-04,
       -7.03523029e-03, -6.41214475e-03, -1.58003103e-02, 8.85601854e-04,
       1.34953379e-03, 1.00596733e-02, 7.60197593e-03, -2.15174793e-03,
       -5.28084906e-03, -2.29655625e-03, 5.55662531e-03, 1.03148101e-02,
       -6.92997733e-03, 1.37984823e-03, -3.02690850e-03, -5.58845978e-03,
       2.12615207e-02, 1.01088891e-02, 2.29788907e-02, 2.55622715e-02,
       3.81085724e-02, 3.98217440e-02, 2.34369803e-02, 7.25889206e-03,
       -6.70639193e-03, -2.14599427e-02, -2.11560000e-02,
       -1.27273016e-02, -7.89549295e-03, 1.35195144e-02, -1.18063828e-02,
       -8.53426196e-03, -3.42234783e-02, -2.32559405e-02, 7.83891324e-03,
       -4.50838916e-03, 1.68245919e-02, 4.07833531e-02, 3.21600363e-02,
       3.81408632e-02, 2.39095297e-02, 5.88410674e-03, 1.49741746e-03,
       -2.35513430e-02, -2.49551702e-02, -1.41332364e-02,
       -3.07382015e-03, 2.12850589e-02, 1.31748803e-03, -5.30052837e-03,
       -3.12793627e-02, -1.89815909e-02, 6.39809808e-03, -7.84859713e-03,
       -1.52708096e-02, -7.02945748e-04, 4.41768905e-03, 1.19156539e-02,
       4.76270448e-03, 2.51030196e-02, 1.51310517e-02, -9.70836636e-03,
       -1.24998130e-02, -1.16079412e-02, -1.07707353e-02, 5.42054418e-03,
       3.67323728e-03, -1.73685607e-02, -2.00269441e-03, -2.67963717e-03,
       9.90243256e-03, -1.12782316e-02, -1.27061000e-02, 7.15316366e-03,
       -1.87758338e-02, -5.16549742e-04, 1.41806975e-02, 1.82911884e-02,
       2.33005900e-02, -9.89884720e-04, -8.02190043e-03, -3.48733948e-03,
       2.52874172e-03, -1.95083041e-02, -2.33277376e-03, 2.31128698e-03,
       6.89453073e-03, 9.94017627e-03, -2.17599198e-02, -1.27246045e-02,
       -1.49184465e-02, 6.59137126e-03, 2.08238768e-03, -7.40573858e-04,
       1.46974213e-04, 1.34451613e-02, -5.14144823e-03, -1.88759789e-02,
       -1.47971939e-02, -7.66401784e-03, 1.60596799e-02, -2.73839833e-04,
       2.88157002e-03, 2.74139792e-02, 3.04348581e-02, 1.93430507e-03,
       -2.07774504e-03, 4.28729365e-03, -7.42350891e-03, 7.12745311e-03,
       -1.29809678e-02, -1.31578064e-02, -9.32208169e-03,
       -3.88565380e-03, 5.74237062e-03, 6.20480860e-03, 8.17654748e-03,
       -1.02531267e-02, 1.08114202e-02, -1.42556068e-03, -4.20071185e-03,
       -8.86772294e-03, -3.15442472e-03, -3.84208909e-03, 4.67104698e-03,
       -4.78540605e-04, 6.28044084e-03, 8.78517795e-03, -2.37513222e-02,
       1.60797909e-02, 2.70634834e-02, 2.12282240e-02, 1.37035968e-02,
       1.07332710e-02, 2.38404553e-02, 1.48465356e-03, 3.60969407e-03,
       -6.34692702e-03, 5.69199491e-03, 2.36458378e-03, 1.54041676e-02,
       2.73079555e-02, 7.40155764e-03, -5.37169958e-03, -4.92298463e-03,
       -1.70191284e-03, -2.73838080e-02, -3.38864425e-04,
       -1.07448455e-03, -3.18208453e-03, 1.49845157e-03, 8.13031010e-03,
       -9.76672163e-04, -1.26983272e-02, -6.40867418e-03,
       -1.80339962e-02, 3.56228265e-04, -3.26082576e-04, -6.13128580e-03,
       -3.70875793e-03, 1.21527892e-02, 1.68793257e-02, 1.57718603e-02,
       2.31706984e-02, 2.30590254e-02, 2.39436291e-02, 1.79453772e-02,
       7.68167572e-03, 9.12965275e-03, -2.31254697e-02, -3.97520978e-03,
       6.24295976e-03, -2.49280385e-03, 5.89726539e-03, -8.40033125e-03,
       -3.30239243e-04, -1.00831604e-02, -2.64119655e-02, 8.83941830e-04,
       -3.59611027e-03, -1.03979195e-02, 1.25723733e-02, 2.54639238e-02,
       4.00428399e-02, 2.61648204e-02, 1.74045451e-02, -1.51322586e-02,
       -1.25205982e-02, -1.79226045e-02, -2.52516177e-02,
       -1.13134719e-02, 1.52769787e-02, 3.09323892e-02, 3.48353572e-02,
       1.26742078e-02, -4.90623713e-03, 7.40885362e-03, 1.25967702e-02,
       2.05344837e-02, 5.62090427e-03, 2.02349517e-02, -7.08450144e-03,
       8.27916805e-03, 1.22755459e-02, -5.83426096e-04, -1.53405275e-02,
       -7.66557781e-03, -6.57338556e-03, -1.58036556e-02, 5.33303106e-03,
       -2.68954672e-02, -9.98924579e-03, -5.68277016e-03, 8.62013455e-03,
       2.10430790e-02, 1.25196287e-02, 8.90490226e-03, 1.71627663e-03,
       7.04498915e-03, 7.56336376e-03, 3.27551365e-02, 2.90351119e-02,
       7.94506725e-03, -5.76598430e-03, -2.94540962e-03, 1.05073885e-03,
       -2.27852426e-02, -4.67111450e-03, -1.78150032e-02,
       -7.47304643e-03, 9.70506109e-04, -4.35910467e-03, -1.03597939e-02,
       1.21899853e-02, 1.31695708e-02, 3.99137754e-03, 1.57020763e-02,
       -1.50700444e-02, -1.44116441e-02, -9.12779663e-03, 2.51666829e-03,
       -1.16516734e-02, 4.00923053e-03, -2.64515379e-03, -1.22102033e-02,
       -2.04002718e-03, -3.72070968e-02, -2.92086434e-02,
       -1.98165718e-02, -7.95785896e-03, 1.28949489e-02, 2.45882273e-02,
       2.13261228e-02, -5.91970142e-03, 1.36996377e-02, -1.39365001e-02,
       1.63188740e-03, 1.73177011e-02, 1.65197253e-02, 8.31889920e-03,
       8.37659091e-03, 1.22573832e-02, -5.89500275e-03, 2.43973918e-03,
       -7.26176566e-03, -4.89961763e-04, 2.11511366e-02, -3.46872793e-03,
       -1.01368343e-02, -9.80807096e-03, -7.27148494e-03,
       -1.51219731e-02, 8.44855048e-03, -1.40698366e-02, 1.97964231e-03,
       -9.63291153e-03, 1.28535572e-02, 7.09579443e-04, -8.70196987e-03,
       2.09932239e-03, -1.36811743e-02, -2.39525619e-03, 2.86355556e-04,
       1.16228536e-02, -1.31215686e-02, 6.52625412e-03, 1.34925749e-02,
       1.32992426e-02, 1.66724548e-02, 3.10161058e-03, 6.14035083e-03,
       1.46796554e-02, 1.43901389e-02, 1.55321555e-02, 1.03095546e-02,
       1.11038210e-02, 1.59440208e-02, 9.32587590e-03, -2.84962566e-03,
       -3.11610452e-03, 6.63017901e-03, 2.10257825e-02, 1.47980256e-02,
       2.01670844e-02, -4.95203212e-03, -8.47203285e-03, 1.37634706e-02,
       1.92144997e-02, 6.04671566e-03, 3.17630358e-03, 6.31736638e-03,
       -2.20890390e-03, 4.98906884e-04, -2.92597599e-02, -1.85548496e-02,
       6.96183322e-03, -8.58009793e-04, 3.00375279e-03, -5.13151614e-03,
       2.22857785e-03, -1.00275553e-04, 6.13134541e-03, 1.43541703e-02,
       9.69331712e-03, 2.61781402e-02, 1.43505037e-02, 1.30614461e-02,
       4.95002698e-03, 1.97776891e-02, 1.95956621e-02, 1.93084590e-02,
       1.44828074e-02, -5.90942986e-03, 3.43299052e-03, 5.29188721e-04,
       1.49767485e-03, 3.59607930e-03, 1.77538004e-02, 1.54647585e-02,
       2.56037340e-02, -1.67855322e-02, 8.31210637e-04, 7.09005632e-03,
       -5.69270691e-03, 2.17688549e-03, -5.79709001e-03, -4.16454044e-04,
       -1.38088353e-02, -9.24859755e-03, -2.00813059e-02,
       -7.93775078e-03, 7.27140531e-03, -4.33454523e-04, 2.06310973e-02,
       -4.79745632e-03, -1.64351743e-02, -2.08542999e-02,
       -3.00082620e-02, 2.57390197e-02, 2.49814782e-02, 1.60960630e-02,
       -1.83705054e-03, -3.22431629e-03, 1.32311753e-03, 1.30223921e-02,
       1.33634387e-02, 2.73350626e-02, 1.70935672e-02, 7.45187094e-03,
       7.16802338e-03, 7.12536136e-03, 2.59010121e-03, -3.78067559e-03,
       -6.37933612e-03, 1.56468078e-02, 5.49362693e-03, -1.76620670e-02,
       -1.09651797e-02, -2.58135889e-03, -8.87835398e-03, 1.00665269e-02,
       -2.69399919e-02, -2.36972254e-02, -1.22999093e-02,
       -1.71064585e-02, 7.26176752e-03, -3.20534292e-03, -5.56424027e-04,
       -3.71859665e-03, 1.60018876e-02, -2.62435097e-02, -8.32053926e-03,
       -1.48550142e-02, 2.66320747e-03, 2.21653618e-02, 8.35875422e-03,
       1.96378212e-02, 2.12872475e-02, 6.70123613e-03, 6.14669733e-03,
       -1.13396207e-02, 4.33252659e-03, 1.67705473e-02, 2.13846564e-02,
       1.54999774e-02, 1.73933897e-02, -1.08801542e-04, 6.18196419e-03,
       6.75453746e-04, -7.24234432e-03, 1.23284676e-03, 2.39106417e-02,
       -6.03376329e-03, 1.18483719e-03, -7.23628420e-03, 1.17623131e-03,
       -3.29408445e-03, -1.08105093e-02, 7.48850126e-03, 1.37145724e-02,
       3.18210223e-03, -6.63072150e-03, -2.87439092e-03, -7.75975781e-03,
       -3.18320957e-03, -1.13583729e-02, -7.99756963e-03, 2.35254560e-02,
       3.44621763e-02, 3.41764698e-03, 1.43068321e-02, 1.33756083e-02,
       -2.84664740e-04, 8.26185045e-04, 3.54869571e-03, -1.53573113e-03,
       -1.72823239e-02, -9.83095448e-03, 2.55495608e-02, 9.25901625e-03,
       1.37373293e-02, -1.12885619e-02, 1.09476002e-03, -2.01127585e-03,
       5.64677967e-03, -1.82653440e-03, -1.05060823e-02, 1.60159171e-03,
       1.73638817e-02, 1.65563915e-02, 9.04277805e-03, -5.24584949e-03,
       -7.75626441e-03, -7.03258440e-03, -4.41686576e-03, 1.74621288e-02,
       1.85351376e-03, 1.24187283e-02, 1.94744840e-02, -4.08376305e-04,
       -3.34109105e-02, -2.37594955e-02, -6.08108938e-03,
       -1.15048224e-02, 6.33774279e-03, 1.43537559e-02, 2.12184414e-02,
       6.59286138e-03, -6.82723988e-03, -4.74724080e-03, -6.85783057e-03,
       6.02451991e-03, -7.87897408e-03, -2.73236306e-03, 1.46071631e-02,
       1.20751020e-02, 1.49596157e-02, -1.71009060e-02, -1.68038514e-02,
       -5.62999817e-03, -5.78968693e-03, -1.50447758e-02,
       -1.63728651e-02, 1.08122751e-02, 8.45345482e-03, 2.46848986e-02,
       1.16987983e-02, -2.50566155e-02, -1.49539076e-02, -4.67697671e-03,
       -5.51627809e-03, 3.30945826e-03, 8.30358919e-03, 1.90634485e-02,
       2.62383502e-02, 2.95362286e-02, 7.74085335e-03, -4.28562751e-03,
       2.19080355e-02, 5.60377352e-03, 2.78842133e-02, 2.01491751e-02,
       3.80694197e-04, -9.98239266e-04, -3.71409743e-03, -3.47554274e-02,
       -1.26484362e-02, -1.89306289e-02, -1.47996238e-02,
       -2.19310932e-02, 5.47474541e-04, 1.72527996e-03, -1.39092130e-03,
       8.90902616e-03, -1.59729961e-02, -1.42922625e-02, -1.73777603e-02,
       -6.43739197e-03, -1.22815520e-02, -5.80349518e-03, 1.41273113e-02,
       1.39997127e-02, 1.30932620e-02, 1.32292286e-02, 1.11622112e-02,
       2.91609280e-02, 2.27657501e-02, 3.71758789e-02, 3.58183347e-02,
       -3.65474122e-03, -3.95585994e-05, 7.04229018e-03, 1.71420556e-02,
       1.63508672e-02, 1.19572766e-02, 1.32051054e-02, 3.05810049e-02,
       1.38392691e-02, -3.56883300e-03, -8.95282812e-03, -1.31804468e-02,
       -3.39967757e-02, -1.70180518e-02, -1.81205962e-02,
       -1.09589787e-03, 9.45477095e-03, -3.01557034e-03, -1.62625760e-02,
       -2.16398798e-02, -2.45300271e-02, -2.63440665e-02,
       -2.11089328e-02, -1.97581947e-02, -7.58674135e-03,
       -1.69853587e-02, -5.83907776e-03, -1.76959520e-03, 6.79423101e-04,
       3.07647344e-02, 4.04011011e-02, 2.73458529e-02, 3.12712416e-02,
       8.88193026e-03, 1.57704167e-02, 1.60655770e-02, -1.53572531e-02,
       6.31150266e-04, 9.68708098e-03, 6.12434465e-03, 2.80072019e-02,
       -1.81113812e-03, -2.22194642e-02, -3.13504003e-02,
       -1.81162218e-03, 5.40687889e-03, 2.63275183e-03, 1.80072058e-02,
       1.71286408e-02, 1.02129839e-02, 1.41795902e-02, -3.72187654e-03,
       -6.10770518e-03, 1.02329571e-02, 8.20526760e-03, -2.37092783e-04,
       -4.92135203e-03, -4.17721597e-03, 4.90776962e-03, -5.11603383e-03,
       -2.22246125e-02, -2.89391950e-02, 1.19476626e-02, 4.81751701e-03,
       -2.71928613e-03, 2.61037028e-03, 1.65799949e-02, -6.60788035e-04,
       1.03359728e-03, 8.02453980e-03, -3.24713695e-03, 1.08273486e-02,
       3.61308717e-04, -2.83931405e-03, 1.16597302e-02, 1.27095236e-02,
       -1.38710095e-02, -1.58911310e-02, -3.91224539e-03,
       -2.14568502e-03, 6.65947329e-03, -7.37555977e-03, 2.32951390e-03,
       -3.90793476e-03, 1.85261220e-02, 6.72662305e-03, 7.27859698e-03,
       -1.50331855e-02, -1.38723701e-02, -9.74899717e-03, 2.66375882e-03,
       -5.34506701e-03, -3.26065766e-03, 1.60270184e-02, 5.80468681e-04,
       5.03274798e-03, -1.95938186e-03, 2.32995328e-04, -4.14927956e-03,
       -2.10615620e-03, 1.43434834e-02, 9.27682128e-03, 1.32543268e-02,
       -5.81618957e-03, -1.07950596e-02, -6.64655259e-03,
       -8.50277953e-03, 1.36468525e-03, -1.77735847e-03, 5.97835099e-03,
       -7.50650605e-03, 1.45271951e-02, 2.23283619e-02, 5.37689356e-03,
       -1.65777355e-02, 8.40253022e-04, 6.21688692e-03, 9.65900626e-03,
       2.80447747e-03, -7.43225357e-03, 1.41637807e-04, -1.38471182e-02,
       4.06400487e-03, -4.94501926e-03, -1.03264414e-02, 1.28670288e-02,
       1.92619837e-03, -6.02982286e-03, -2.25653835e-02, 1.96847413e-02,
       -2.81665754e-03, 1.65165234e-02, -1.71957747e-03, -6.68160291e-03,
       9.80392378e-03, 4.51789377e-03, -5.99326286e-03, -1.53492354e-02,
       -7.80409144e-04, 6.09495724e-03, 2.78456160e-03, -5.41526685e-03,
       5.07701235e-03, 1.80452783e-02, -5.08855423e-03, 4.19542473e-03,
       -1.63875369e-03, 4.81632724e-03, 9.08536091e-03, -6.93120435e-03,
       -1.51025448e-02, -1.13591496e-02, -1.67879779e-02, 4.79848590e-03,
       -9.80761182e-03, -1.14393514e-02, 8.77397694e-03, 1.62597094e-02,
       1.25970915e-02, -6.61093043e-04, -6.25951262e-03, 2.27969792e-02,
       -6.26569567e-03, 2.75951414e-03, -2.12914892e-03, 4.49289707e-03,
       8.45919643e-03, -7.21812760e-03, -1.24935191e-02, -8.13497230e-03,
       -2.09850981e-03, -6.81472057e-03, 9.52984858e-03, -1.83662958e-03,
       9.70586482e-03, 2.14923769e-02, 1.47490054e-02, 2.91880090e-02,
       5.72074857e-03, -6.71124179e-03, -9.37426370e-03, -5.66676585e-03,
       -1.70562305e-02, -1.53740831e-02, 4.60066693e-03, 2.33552959e-02,
       3.20700631e-02, 1.69514418e-02, 2.57627660e-04, 3.12703964e-03,
       1.31248971e-02, 2.76890304e-03, -4.49916488e-03, -3.21459863e-03,
       -1.12074930e-02, -9.76319239e-03, -4.73247049e-03, 2.24195118e-03,
       -7.01053720e-03, 6.75480289e-04, -1.88114755e-02, -7.92093575e-03,
       -1.22068347e-02, -1.10418694e-02, -1.25664221e-02,
       -3.48878535e-03, -9.21663828e-03, 3.63116059e-03, 2.94647692e-03,
       -1.59138981e-02, -2.64902581e-02, -1.31278774e-02,
       -4.29023383e-03, 1.67131945e-02, 2.26306412e-02, 1.39933378e-02,
       -8.85914359e-03, -8.06275848e-03, -1.51876640e-02,
       -3.66158895e-02, -2.54172180e-02, -2.77074799e-02,
       -1.22761885e-02, 3.47710517e-03, 9.05274972e-03, 4.07611718e-03,
       7.55673414e-03, -4.19937714e-05, 7.05066929e-03, 1.79313740e-03,
       -1.95169821e-04, 6.57130079e-03, 2.86955032e-02, 1.31857654e-04,
       -4.49708104e-03, 6.64833141e-03, 3.23133403e-03, -1.04924745e-03,
       -7.78090674e-03, -1.51217515e-02, -8.49166606e-03, 1.19631113e-02,
       1.38586704e-02, 1.70199536e-02, -1.13455590e-03, 2.61707511e-03,
       -9.36929602e-03, -7.31385499e-03, -1.84101593e-02, 7.14175496e-03,
       2.38167699e-02, 4.82927170e-03, 3.20366514e-03, -3.61712999e-03,
       -6.33441843e-03, -6.48831483e-03, -7.76058435e-03,
       -9.92186461e-03, 7.92266335e-04, 1.29767638e-02, -1.43636176e-02,
       4.66238894e-03, 5.63111575e-03, 8.99187662e-03, 9.92100593e-03,
       6.06520381e-03, 1.15124811e-03, 1.46676395e-02, 3.44480164e-02,
       1.00153228e-02, -4.82559809e-03, 8.45247228e-03, -5.23474393e-03,
       6.13296265e-03, -4.62569855e-03, -1.66673947e-03, 7.81251118e-03,
       2.25369595e-02, -1.00767175e-02, 2.34220433e-03, 2.46743928e-03,
       1.08410942e-03, 6.25420315e-03, 2.23894464e-03, 3.95757519e-03,
       -4.18659020e-03, 9.03776754e-03, 5.47386101e-03, -6.43553259e-03,
       -6.36656722e-03, -8.01312551e-03, -9.45222564e-03, 3.47862486e-03,
       -3.16329417e-03, -1.11642564e-02, 1.73486443e-03, 1.15182971e-04,
       1.10362396e-02, 9.64524131e-03, -2.50433874e-03, -3.14274919e-03,
       9.50966962e-03, 2.00184761e-03, 3.64830135e-03, 1.54673718e-02,
       8.03612452e-03, -6.06559357e-03, 4.78618499e-03, -5.71191218e-03,
       -1.49539486e-02, -7.73312431e-03, 1.25558826e-03, -2.00367011e-02,
       2.20346544e-03, -8.10243655e-03, 6.02567662e-03, 1.15158018e-02,
       1.24724526e-02, 3.53877270e-03, 1.87550914e-02, 5.56858489e-03,
       6.62091002e-03, 1.31208031e-02, 4.54859633e-04, 5.69775514e-03,
       5.46132680e-03, -2.25606491e-03, -1.15272738e-02, -5.90825360e-03,
       2.70153687e-04, 1.43022640e-02, 1.64754577e-02, 3.99768772e-03,
       -7.83103798e-03, 1.48588456e-02, 7.56260194e-03, 2.30153790e-03,
       8.32818914e-03, -2.18369858e-03, -1.60400607e-02, -4.50820243e-03,
       4.59029200e-03, 4.62813862e-03, 4.95605357e-03, -7.89504964e-03,
       -2.99692131e-03, 1.26287760e-02, -1.40629727e-02, -6.82658143e-03,
       -5.83116990e-03, 6.59245858e-03, 8.19668546e-03, 1.05003873e-02,
       -1.70276238e-04, -3.61759216e-03, -8.03501971e-05,
       -2.96139438e-03, 1.89271998e-02, 2.65452936e-02, 8.61073658e-03,
       -1.20200450e-02, 5.07708406e-04, 5.70583763e-03, -8.10050033e-03,
       -7.32814940e-03, -1.18616428e-02, -1.86911307e-03, 2.13118419e-02,
       -1.21308127e-02, 3.59338778e-03, 1.32853873e-02, 4.06630151e-03,
       7.58128474e-03, 2.26539792e-03, -2.44886335e-03, 1.44893653e-03,
       2.20504738e-02, 9.91849229e-03, -1.04721254e-02, 6.23498438e-03,
       -4.04150086e-03, -7.34627433e-03, 4.19331854e-03, -5.52840438e-03,
       -1.28339250e-02, 9.41602327e-03, -7.33394502e-03, -7.40043493e-03,
       -3.75681417e-03, 3.42774671e-03, 1.42464889e-02, 2.30710991e-02,
       6.55198842e-03, -1.04256906e-02, 1.03145512e-02, -8.96794721e-03,
       -2.28486620e-04, 3.30390944e-03, -3.64870555e-03, -5.51459147e-03,
       1.22311180e-02, 2.85697985e-03, -1.27495071e-02, 5.41036250e-03,
       6.86380360e-03, -1.20110363e-02, -7.92659540e-03, -1.11277085e-02,
       6.65911892e-03, 1.81433335e-02, 7.03412481e-03, -1.75268445e-02,
       -4.92769899e-03, -1.48779890e-02, -1.91484764e-02,
       -1.17481761e-02, -1.85707938e-02, -1.51211750e-02, 8.86654388e-03,
       -3.76929552e-03, -4.43759328e-03, -2.30565682e-04,
       -1.23395314e-02, -1.18877576e-03, 1.26629798e-02, 9.42595676e-03,
       1.90818845e-03, 1.33762322e-02, 1.64846014e-02, 3.65572516e-03,
       1.00920526e-02, 1.00399284e-02, 2.19424977e-03, -1.16249314e-02,
       4.06426471e-03, 9.67450161e-03, 2.72235759e-02, 1.11831790e-02,
       3.35287699e-03, -8.36993475e-03, 2.19931547e-03, -5.57737285e-03,
       -1.44691756e-02, 5.28167409e-04, -5.05271880e-03, 1.58360731e-02,
       4.23929002e-03, -1.27350015e-03, 9.71600227e-03, -1.47479307e-03,
       8.67592287e-04, -1.34924324e-02, 7.79832201e-03, 3.93119873e-04,
       2.47375313e-02, -2.19158595e-03, -5.64913126e-03, 7.56923808e-03,
       7.44406274e-03, 6.74501574e-03, 7.41619733e-04, 8.29270761e-03,
       1.36934919e-02, 2.13365629e-02, 2.01213770e-02, 1.22016603e-02,
       5.09287836e-03, 7.82156084e-03, -2.49949587e-03, -1.00127235e-03,
       -8.36577546e-03, -1.68996150e-04, 1.80351622e-02, 6.28456427e-03,
       -3.88397806e-04, -1.54943718e-03, 1.73003890e-03, 2.59655784e-03,
       -6.69340044e-03, 1.07881296e-02, 2.09797285e-02, 1.77747328e-02,
       3.75835272e-03, 3.54642887e-03, 1.08472900e-02, 2.13967264e-02,
       4.32415958e-03, -1.63954813e-02, -8.01211875e-03, 1.05839446e-02,
       1.31028080e-02, -3.68438335e-03, -5.83318248e-03, 8.12706724e-03,
       3.33703170e-03, -4.28707851e-03, 2.08961451e-03, 9.82013717e-03,
       -3.61733674e-03, 2.43494343e-02, -2.83166952e-03, 6.86285924e-03,
       -1.91058088e-02, -8.45146459e-03, -1.40527422e-02,
       -3.84326978e-03, 1.69512648e-02, -3.37928464e-03, 1.56012895e-02,
       4.02687164e-03, 2.28953380e-02, -1.90212410e-02, -1.89936981e-02,
       6.30684895e-03, -8.72598123e-03, 2.18986138e-03, 6.40849723e-03,
       3.50924991e-02, -5.35145029e-03, 1.05007635e-02, -5.67172701e-03,
       -9.99485888e-03, -8.71688034e-03, 4.17106505e-03, 7.03616580e-03,
       -2.59391661e-03, 9.39601567e-03, 4.79677459e-03, 2.46078074e-02,
       -7.91241415e-03, -8.76551028e-03, -9.23882425e-03,
       -8.49480927e-03, -4.34780167e-03, -1.43175470e-02, 1.17502464e-02,
       1.63721740e-02, 3.01399752e-02, 2.16836249e-03, -7.27521069e-03,
       -4.83954180e-04, 1.23461280e-02, 1.77375283e-02, 1.25430999e-02,
       8.15255661e-03, 2.46873498e-02, 2.64670663e-02, -2.80951196e-03,
       -1.03598402e-03, -1.77485049e-02, -1.07390573e-02,
       -1.34791629e-02, -2.04374697e-02, 4.61855717e-03, 1.60334129e-02,
       1.57623887e-02, -6.03741733e-03, -1.35728903e-02, -7.25374417e-03,
       8.72546621e-03, 2.81205471e-03, 5.47015993e-03, 9.25497909e-04,
       1.05624665e-02, 7.15385797e-03, -1.70151070e-02, -1.21220741e-02,
       1.70661206e-03, 6.36429945e-03, 1.80917829e-02, 1.83695070e-02,
       1.96207464e-02, 1.19124474e-02, 2.01553805e-03, -1.02413464e-02,
       -1.17760757e-02, 7.54866004e-03, 8.57355306e-04, 4.81146108e-03,
       7.19133671e-03, 5.97052649e-03, 1.80256981e-02, 4.33992624e-04,
       -1.29250074e-02, -6.01069443e-03, 3.06202937e-03, 1.58567056e-02,
       6.83372840e-04, 1.34505546e-02, 7.14230724e-03, -5.61497360e-03,
       6.21671136e-03, -1.42486021e-02, 3.26031609e-03, 1.67449620e-02,
       2.05834932e-03, 3.83692328e-03, -2.94922618e-03, -2.06581247e-03,
       4.08474309e-03, -3.79156787e-04, -8.06533280e-05, 1.23831406e-02,
       8.36405158e-03, -4.09070030e-03, -7.86954537e-03, 1.90576874e-02,
       1.81638096e-02, 8.88129976e-03, -1.06495870e-02, -6.86483085e-03,
       1.32035259e-02, -2.15654052e-03, -8.84339027e-03, -5.67620201e-03,
       1.82678364e-02, 7.74457585e-04, 1.09151034e-02, -6.00007409e-03,
       -7.06174644e-03, -6.20405562e-03, 6.65755291e-03, -4.09216713e-03,
       -9.56504419e-03, 1.93966217e-02, 8.97591840e-03, 1.18227834e-02,
       -4.75104619e-03, 9.45499167e-03, 1.73649620e-02, -4.44017164e-03,
       -1.84537247e-02, -6.53137872e-03, 8.18161853e-03, 7.31462659e-03,
       1.87781584e-02, 8.95529334e-03, 9.54872835e-03, -6.77621551e-03,
       8.26528575e-03, -4.22104867e-03, -4.87313513e-03, -5.88094955e-03,
       -1.48169808e-02, -3.58352228e-03, -5.78918587e-03,
       -6.86557032e-03, 1.68719180e-02, 5.67406509e-03, 3.83075420e-03,
       -9.14144982e-03, -1.48951600e-03, -1.48757789e-02,
       -4.30093642e-04, 1.18365604e-02, -1.24490738e-03, 6.83987001e-03,
       7.91723933e-03, -2.85432325e-04, 6.14857348e-03, 2.23347871e-03,
       4.99735912e-03, -2.97111482e-03, 6.30656723e-03, -6.18452067e-03,
       1.19573316e-02, 1.14935329e-02, 1.46547705e-02, 4.24251566e-03,
       1.95709169e-02, 1.06510939e-03, -1.91385429e-02, 6.06886344e-03,
       -6.72924798e-03, 8.73461924e-03, -3.17515968e-03, -7.99641479e-03,
       -8.72136443e-04, 2.80200201e-03, 6.52885018e-03, -6.20485982e-03,
       8.95765331e-03, 8.50692275e-04, 3.17480532e-03, -4.17883275e-03,
       6.44313265e-03, 1.94725196e-03, -1.30678834e-02, -5.60312299e-03,
       -1.64273847e-02, -6.34613156e-04, -8.62195680e-04,
       -5.91849070e-03, 8.44981242e-03, 1.40016899e-02, 1.69916842e-02,
       1.71822645e-02, 2.29988582e-02, -2.76829931e-03, 1.43953199e-02,
       3.58369271e-03, 1.25260865e-02, -1.05139343e-02, 8.52656958e-04,
       7.16914306e-04, -1.29352175e-02, 6.56911114e-04, 4.30123834e-03,
       9.87700466e-03, 1.03457440e-02, 7.16000330e-03, 3.31404177e-03,
       1.06638574e-04, 6.36175973e-04, -1.44882118e-02, -5.25652431e-03,
       2.67874380e-03, -3.84438992e-03, 1.06346374e-02, 1.25800958e-02,
       8.02129414e-03, -6.30781054e-03, -1.79678909e-02, -8.24816898e-03,
       5.16922353e-03, -9.45186429e-03, -6.68129558e-03, 8.85066669e-03,
       5.18161478e-03, -6.57157553e-03, -4.44583874e-03, -2.69921822e-03,
       -2.11399104e-02, -1.64852093e-03, 1.38654336e-02, 1.25132808e-02,
       1.35075003e-02, 9.36609693e-04, 2.80360389e-03, 5.06231212e-04,
       -1.75858010e-03, 1.70805826e-04, -2.58165295e-03, 8.39497545e-04,
       -2.81220581e-03, -1.24631310e-03, 3.48235742e-04, 3.21530225e-03,
       -8.15002806e-03, 3.31478566e-03, 9.89463832e-03, 9.99192707e-03,
       -3.23504116e-03, -1.40625089e-02, 1.43381609e-02, -3.81300412e-03,
       -6.91830600e-03, -4.14415216e-03, 9.16644651e-03, 1.07620461e-02,
       -4.04582778e-03, -1.93530377e-02, -2.69867890e-02,
       -3.33772833e-03, -4.61306470e-03, 1.68145299e-02, -7.04490521e-04,
       1.21125169e-02, 9.06369649e-03, 1.78713985e-02, 1.49685638e-02,
       -2.68590811e-04, -2.09217891e-03, -1.00638196e-02,
       -2.68608029e-03, -1.05787981e-02, 7.77544919e-03, -1.68900122e-03,
       1.73710450e-03, -1.07701896e-02, -2.66131181e-02, -1.18760699e-02,
       -1.41372140e-02, 3.36908316e-03, 9.77955759e-03, 1.76305398e-02,
       2.27264836e-02, 6.52516913e-03, -5.48722968e-03, -2.35492713e-03,
       1.84925217e-02, 1.71129499e-03, 2.09347834e-03, 5.77904610e-03,
       4.58338327e-04, -4.79774928e-04, 4.10576770e-03, -9.85240657e-03,
       -1.18972939e-02, 6.09300891e-03, 1.56013892e-04, -9.59147234e-04,
       9.58881155e-03, 1.93773154e-02, 1.47149600e-02, 3.03626689e-03,
       7.48451392e-04, -1.52024087e-02, -1.26043372e-02, -4.30547493e-03,
       -7.23523134e-03, -1.55860547e-03, -1.14725232e-02,
       -4.36469587e-03, 1.43054379e-02, -2.64591374e-03, -1.65421218e-02,
       -2.28539184e-02, -3.23102414e-03, 1.93919390e-02, 1.08344443e-02,
       -1.03989558e-03, 6.70261495e-03, 1.42783951e-02, 1.72998477e-02,
       1.88330561e-02, 1.57464221e-02, 1.15716280e-02, 8.84982105e-03,
       1.02642523e-02, -2.01197504e-03, 1.02956744e-03, 1.46601647e-02,
       7.41697056e-03, -9.39593464e-03, -5.49508445e-03, -3.79547267e-03,
       -8.52720067e-03, -1.66184418e-02, -1.51974149e-02, 4.50277701e-03,
       1.95171852e-02, 1.05748735e-02, -1.67806018e-02, -1.42330257e-02,
       -6.32071169e-03, -4.90681210e-04, -1.15687018e-02,
       -1.10431900e-02, -5.99068776e-03, 9.32617579e-03, -5.14364289e-03,
       -1.82923116e-02, -2.33131591e-02, -2.09178962e-02, 2.32129343e-04,
       1.23702940e-02, 1.16108358e-02, -1.54994940e-03, 1.85033102e-02,
       -5.04823925e-04, -1.19094318e-02, 2.45314650e-03, -6.60641678e-03,
       -3.76161304e-03, -7.79873645e-03, -5.38183795e-03,
       -8.24775547e-03, 4.76913340e-03, -9.44377948e-03, -9.65109468e-03,
       -1.65532753e-02, -1.08864158e-02, 5.90630760e-03, 7.66906748e-03,
       1.08134339e-03, -1.49224475e-02, 6.87301299e-03, 2.77207233e-03,
       -2.20213970e-03, -6.54869899e-03, -8.73673521e-03, 1.53149696e-04,
       4.76876507e-03, 4.39749286e-03, -7.46379467e-03, -2.11448455e-03,
       -4.93161287e-03, -4.28326661e-03, -1.14110910e-04,
       -2.37625442e-03, 1.08544063e-03, -3.31861060e-03, 4.14246833e-03,
       4.72554984e-03, 7.58564426e-03, 4.77220630e-03, 1.17943528e-04,
       3.74762970e-03, -2.16431008e-03, 2.62193452e-03, -7.08200410e-03,
       -1.36672147e-03, -1.15789594e-02, 6.61609648e-03, 5.27041219e-03,
       -2.24750768e-03, -8.55981186e-03, 9.59127583e-03, -1.57999876e-03,
       -4.56883339e-03, 1.17122848e-02, 1.48250218e-02, 8.14184640e-03,
       1.12827234e-02, 1.39302516e-03, -3.27969249e-03, -4.60353727e-03,
       2.52037845e-03, 4.69102757e-03, 1.30436588e-02, -8.74333270e-03,
       8.24116357e-03, 3.83653864e-03, -5.29080350e-03, -1.07317381e-02,
       -8.21081549e-03, 1.02248099e-02, -2.66990799e-04, 3.86113417e-03,
       1.55020203e-03, 9.61241592e-03, 1.19098071e-02, -5.76010160e-03,
       -1.13030570e-02, -6.38444966e-04, 9.82285943e-04, 7.56501406e-03,
       4.37928684e-04, -7.09797908e-03, -5.48499357e-03, -5.57763642e-03,
       -6.00455562e-03, -1.59404073e-02, -1.55271776e-03, 2.06772611e-02,
       2.06565019e-02, 2.74829119e-02, 2.95756431e-03, 7.99984147e-04,
       1.16876280e-02, 7.67376448e-04, -1.23304233e-03, 3.61317582e-03,
       8.54044873e-03, 9.62363370e-03, 4.00994392e-03, 4.53116652e-03,
       -1.38723096e-02, 7.77380867e-03, 4.03100485e-03, -8.07257555e-03,
       3.83896031e-03, 5.97783923e-03, 8.64662696e-04, -9.89978388e-03,
       2.12459452e-03, 2.47741044e-02, -4.62676724e-03, -7.76570989e-03,
       -3.58782080e-03, 9.00331698e-03, 3.15671624e-03, -1.05086649e-02,
       -1.53458230e-02, -1.06674293e-02, 1.50837144e-02, -1.99714862e-02,
       -8.99136532e-03, 5.41584194e-03, 7.22361216e-03, 7.98742380e-03,
       4.36346233e-03, -1.17240120e-02, 1.60367507e-02, 1.68448444e-02,
       1.27190007e-02, 1.12453429e-02, -3.32070957e-03, -4.00056038e-03,
       9.66030348e-04, -1.81455759e-03, -5.19529078e-03, -4.14796360e-03,
       3.00627970e-03, -1.08253164e-02, 8.91742110e-03, 1.93267525e-03,
       -2.20345594e-02, -3.09491297e-03, -8.24068394e-03,
       -7.17508793e-03, -3.11371591e-03, 1.86256021e-02, -1.28444191e-02,
       -5.35499165e-03, 5.84192947e-03, 1.10419011e-02, 2.05890654e-04,
       -1.65701862e-02, -7.35753821e-03, -2.73947278e-03, 1.52593199e-02,
       3.98567785e-03, -5.39377332e-03, 7.76466401e-03, 7.82207213e-03,
       1.09469295e-02, 3.76230781e-03, 4.35590697e-03, 5.42569789e-04,
       1.09201679e-02, -8.98585003e-03, 1.17985271e-02, -1.81680149e-03,
       -8.69119074e-03, 8.32612067e-03, 7.94904772e-03, 1.06295580e-02,
       1.02225516e-03, 1.97307169e-02, -1.89761713e-03, -1.90285814e-03,
       -2.30130972e-04, -6.16523845e-04, -8.12070630e-03,
       -1.65901333e-02, -2.09938269e-03, -1.67886075e-02, 1.66861881e-02,
       3.01841646e-03, -3.90439713e-03, -4.69444133e-03, -1.00438846e-02,
       -1.93197597e-02, 5.29839052e-03, -6.05678302e-04, -1.25464583e-02,
       -3.36041977e-03, 3.94412503e-03, 8.64659064e-03, 4.84747300e-03,
       -7.49453111e-03, -1.91994256e-03, 2.89438805e-03, -2.59821210e-03,
       -9.85398609e-03, 1.73445791e-02, 3.46076302e-03, -4.99313558e-03,
       -2.42213625e-03, 4.29642247e-03, -2.40158220e-03, 1.51913241e-03,
       1.57726798e-02, -3.20235477e-03, 6.52818987e-03, 1.37425866e-02,
       1.78118255e-02, 8.36811308e-03, 1.34907663e-02, -4.70693829e-03,
       -2.14271294e-03, -1.26148583e-02, -1.14614544e-02, 1.36341127e-02,
       8.62985849e-03, 1.24450009e-02, -9.86391911e-04, -5.29507874e-03,
       6.72783121e-04, -8.97308998e-03, -1.62335299e-02, -8.36845487e-03,
       8.09881371e-03, 1.10547082e-03, -2.27884757e-05, -1.54698116e-03,
       1.20006362e-03, -2.14823312e-03, -4.21390403e-03, 8.04917235e-03,
       5.43603441e-04, 2.22055987e-02, 1.28775220e-02, 2.32483763e-02,
       -1.10957155e-03, 1.90926425e-04, 8.74923635e-03, 6.04119478e-03,
       -5.63539332e-03, -2.41510733e-03, 1.58003960e-02, 1.11238938e-02,
       1.84768811e-02, 1.46413976e-02, 1.73955485e-02, -4.07141866e-03,
       -1.53338900e-02, -1.57249011e-02, 2.94400612e-03, 1.17185041e-02,
       -8.37988686e-03, -2.30233953e-03, 3.85757594e-04, 6.34121196e-03,
       1.50418654e-02, -7.36538926e-03, -1.20182466e-02, -4.41174721e-03,
       2.15711202e-02, 1.80648209e-03, 4.98735870e-04, 4.04456072e-03,
       1.72746740e-02, 6.93593756e-04, -9.01560672e-03, -1.31823425e-03,
       1.91283133e-02, 2.16241889e-02, 8.13812576e-03, 3.33559397e-03,
       1.03611983e-02, 1.53468847e-02, 9.67691839e-03, -2.10670270e-02,
       -1.01893386e-02, 1.62102841e-02, 1.11621106e-02, 2.79294187e-03,
       7.31539330e-05, -5.38395951e-03, 1.82867385e-02, -8.13012481e-01 ]
